63
7
1.0

0.0 0.0 -0.5 -0.5 -0.5 0.0 1.0 

-1.0 0.0 1.0 0.0 -1.0 -2.0 0.0 0.0 0.0 1.0 2.0 0.0 0.0 0.0 0.0 0.0 1.0 1.0 1.0 0.0 0.0 0.0 0.0 1.0 1.0 2.0 0.0 0.0 0.0 -1.0 1.0 0.0 1.0 -1.0 1.0 0.0 1.0 1.0 2.0 2.0 1.0 0.0 0.0 0.0 1.0 0.0 1.0 1.0 0.0 0.0 0.0 1.0 1.0 0.0 1.0 0.0 0.0 1.0 0.0 -1.0 0.0 0.0 2.0 

A

1.0 1.0 -1.0 -1.0 0.0 2.0 -1.0 1.0 0.0 1.0 0.0 1.0 -1.0 3.0 0.0 1.0 1.0 0.0 1.0 1.0 2.0 0.0 1.0 1.0 2.0 1.0 2.0 1.0 0.0 1.0 1.0 2.0 1.0 3.0 0.0 0.0 0.0 0.0 0.0 0.0 0.0 2.0 0.0 0.0 1.0 1.0 1.0 0.0 2.0 1.0 -1.0 1.0 1.0 1.0 -2.0 3.0 0.0 0.0 -1.0 0.0 -1.0 1.0 -1.0 

B

-1.5 -0.5 0.5 0.5 1.5 -0.5 2.5 -0.5 2.5 1.5 0.5 0.5 0.5 1.5 1.5 0.5 1.5 -0.5 1.5 0.5 0.5 1.5 0.5 -0.5 1.5 0.5 0.5 -0.5 1.5 -1.5 -0.5 0.5 -0.5 -0.5 0.5 1.5 -0.5 -0.5 0.5 0.5 -0.5 -0.5 1.5 -1.5 1.5 0.5 1.5 -0.5 0.5 -0.5 0.5 1.5 1.5 0.5 -0.5 1.5 -2.5 -1.5 -0.5 0.5 -0.5 -0.5 0.5 

C

1.5 1.5 -0.5 -0.5 0.5 -2.5 -0.5 1.5 0.5 1.5 0.5 1.5 2.5 -2.5 0.5 1.5 1.5 0.5 1.5 0.5 1.5 0.5 1.5 -0.5 -0.5 -0.5 -0.5 3.5 0.5 0.5 -1.5 -0.5 -0.5 -0.5 3.5 0.5 0.5 0.5 -0.5 0.5 -0.5 2.5 0.5 -0.5 1.5 1.5 1.5 -0.5 1.5 1.5 -1.5 1.5 1.5 1.5 1.5 -1.5 0.5 0.5 -1.5 -0.5 -1.5 -2.5 -0.5 

D

0.5 0.5 -0.5 1.5 1.5 -0.5 3.5 0.5 1.5 1.5 0.5 0.5 -0.5 0.5 0.5 1.5 1.5 -0.5 1.5 0.5 -2.5 0.5 1.5 -0.5 2.5 0.5 -0.5 -1.5 0.5 0.5 -0.5 2.5 0.5 -2.5 0.5 0.5 0.5 0.5 0.5 0.5 -0.5 -2.5 0.5 0.5 1.5 1.5 -0.5 -0.5 -2.5 0.5 -0.5 1.5 1.5 1.5 -2.5 0.5 -0.5 -0.5 -1.5 1.5 0.5 -0.5 3.5 

E

0.0 0.0 -2.0 -1.0 0.0 1.0 2.0 0.0 0.0 1.0 0.0 1.0 1.0 0.0 -1.0 1.0 1.0 0.0 1.0 2.0 -1.0 -1.0 1.0 0.0 1.0 0.0 2.0 0.0 -1.0 0.0 -1.0 0.0 -1.0 1.0 1.0 -1.0 0.0 0.0 0.0 0.0 1.0 0.0 -1.0 1.0 1.0 1.0 1.0 1.0 -1.0 0.0 0.0 1.0 1.0 1.0 0.0 0.0 -1.0 -1.0 -1.0 0.0 -1.0 -1.0 0.0 

J

1.0 0.0 -1.0 -2.0 -1.0 1.0 1.0 0.0 1.0 0.0 -1.0 2.0 0.0 -1.0 0.0 1.0 0.0 1.0 0.0 0.0 -1.0 0.0 1.0 1.0 0.0 -1.0 0.0 -1.0 0.0 1.0 -1.0 -1.0 -2.0 -1.0 0.0 0.0 0.0 0.0 0.0 -1.0 -1.0 -1.0 0.0 0.0 0.0 1.0 1.0 -1.0 -1.0 0.0 0.0 0.0 0.0 1.0 0.0 -1.0 0.0 -1.0 -1.0 -1.0 -2.0 0.0 0.0 

K

